digraph Tree {
node [shape=box, style="filled, rounded", color="black", fontname=helvetica] ;
edge [fontname=helvetica] ;
0 [label="petal width (cm) <= 0.8\ngini = 0.67\nsamples = 94\nvalue = [49, 53, 48]\nclass = versicolor", fillcolor="#f7fefa"] ;
1 [label="gini = 0.0\nsamples = 28\nvalue = [49, 0, 0]\nclass = setosa", fillcolor="#e58139"] ;
0 -> 1 [labeldistance=2.5, labelangle=45, headlabel="True"] ;
2 [label="petal length (cm) <= 4.95\ngini = 0.5\nsamples = 66\nvalue = [0, 53, 48]\nclass = versicolor", fillcolor="#ecfdf3"] ;
0 -> 2 [labeldistance=2.5, labelangle=-45, headlabel="False"] ;
3 [label="gini = 0.13\nsamples = 35\nvalue = [0, 53, 4]\nclass = versicolor", fillcolor="#48e78b"] ;
2 -> 3 ;
4 [label="gini = 0.0\nsamples = 31\nvalue = [0, 0, 44]\nclass = virginica", fillcolor="#8139e5"] ;
2 -> 4 ;
}